digraph Tree {
node [shape=box, style="filled, rounded", color="black", fontname="helvetica"] ;
edge [fontname="helvetica"] ;
0 [label="petal length (cm) <= 2.45\ngini = 0.66\nsamples = 97\nvalue = [46, 58, 46]\nclass = versicolor", fillcolor="#e8fcf0"] ;
1 [label="gini = 0.0\nsamples = 31\nvalue = [46, 0, 0]\nclass = setosa", fillcolor="#e58139"] ;
0 -> 1 [labeldistance=2.5, labelangle=45, headlabel="True"] ;
2 [label="petal width (cm) <= 1.7\ngini = 0.49\nsamples = 66\nvalue = [0, 58, 46]\nclass = versicolor", fillcolor="#d6fae5"] ;
0 -> 2 [labeldistance=2.5, labelangle=-45, headlabel="False"] ;
3 [label="petal length (cm) <= 5.0\ngini = 0.07\nsamples = 38\nvalue = [0, 57, 2]\nclass = versicolor", fillcolor="#40e685"] ;
2 -> 3 ;
4 [label="gini = 0.0\nsamples = 36\nvalue = [0, 57, 0]\nclass = versicolor", fillcolor="#39e581"] ;
3 -> 4 ;
5 [label="gini = 0.0\nsamples = 2\nvalue = [0, 0, 2]\nclass = virginica", fillcolor="#8139e5"] ;
3 -> 5 ;
6 [label="petal length (cm) <= 4.85\ngini = 0.04\nsamples = 28\nvalue = [0, 1, 44]\nclass = virginica", fillcolor="#843de6"] ;
2 -> 6 ;
7 [label="sepal length (cm) <= 6.05\ngini = 0.38\nsamples = 2\nvalue = [0, 1, 3]\nclass = virginica", fillcolor="#ab7bee"] ;
6 -> 7 ;
8 [label="gini = 0.0\nsamples = 1\nvalue = [0, 1, 0]\nclass = versicolor", fillcolor="#39e581"] ;
7 -> 8 ;
9 [label="gini = 0.0\nsamples = 1\nvalue = [0, 0, 3]\nclass = virginica", fillcolor="#8139e5"] ;
7 -> 9 ;
10 [label="gini = 0.0\nsamples = 26\nvalue = [0, 0, 41]\nclass = virginica", fillcolor="#8139e5"] ;
6 -> 10 ;
}